digraph Tree {
node [shape=box, style="filled, rounded", color="black", fontname=helvetica] ;
edge [fontname=helvetica] ;
0 [label=<Precentage Access to Undeveloped Area &le; 62.5<br/>gini = 0.367<br/>samples = 124<br/>value = [30, 94]<br/>class = Brown frog>, fillcolor="#78bced"] ;
1 [label=<Use of Water Reservoir &le; 0.5<br/>gini = 0.5<br/>samples = 18<br/>value = [9, 9]<br/>class = Not Brown frog>, fillcolor="#ffffff"] ;
0 -> 1 [labeldistance=2.5, labelangle=45, headlabel="True"] ;
2 [label=<The Most Dominant Land Type &le; 4.0<br/>gini = 0.346<br/>samples = 9<br/>value = [2, 7]<br/>class = Brown frog>, fillcolor="#72b9ec"] ;
1 -> 2 ;
3 [label=<gini = 0.0<br/>samples = 1<br/>value = [1, 0]<br/>class = Not Brown frog>, fillcolor="#e58139"] ;
2 -> 3 ;
4 [label=<Presence of Vegetation &le; 3.5<br/>gini = 0.219<br/>samples = 8<br/>value = [1, 7]<br/>class = Brown frog>, fillcolor="#55abe9"] ;
2 -> 4 ;
5 [label=<gini = 0.0<br/>samples = 6<br/>value = [0, 6]<br/>class = Brown frog>, fillcolor="#399de5"] ;
4 -> 5 ;
6 [label=<gini = 0.5<br/>samples = 2<br/>value = [1, 1]<br/>class = Not Brown frog>, fillcolor="#ffffff"] ;
4 -> 6 ;
7 [label=<Precentage Access to Undeveloped Area &le; 37.5<br/>gini = 0.346<br/>samples = 9<br/>value = [7, 2]<br/>class = Not Brown frog>, fillcolor="#eca572"] ;
1 -> 7 ;
8 [label=<gini = 0.0<br/>samples = 4<br/>value = [4, 0]<br/>class = Not Brown frog>, fillcolor="#e58139"] ;
7 -> 8 ;
9 [label=<Water Reservoir Surface &le; 4650.0<br/>gini = 0.48<br/>samples = 5<br/>value = [3, 2]<br/>class = Not Brown frog>, fillcolor="#f6d5bd"] ;
7 -> 9 ;
10 [label=<gini = 0.444<br/>samples = 3<br/>value = [1, 2]<br/>class = Brown frog>, fillcolor="#9ccef2"] ;
9 -> 10 ;
11 [label=<gini = 0.0<br/>samples = 2<br/>value = [2, 0]<br/>class = Not Brown frog>, fillcolor="#e58139"] ;
9 -> 11 ;
12 [label=<The Most Dominant Land Type &le; 1.5<br/>gini = 0.318<br/>samples = 106<br/>value = [21, 85]<br/>class = Brown frog>, fillcolor="#6ab5eb"] ;
0 -> 12 [labeldistance=2.5, labelangle=-45, headlabel="False"] ;
13 [label=<Type of Reservoir &le; 14.5<br/>gini = 0.077<br/>samples = 25<br/>value = [1, 24]<br/>class = Brown frog>, fillcolor="#41a1e6"] ;
12 -> 13 ;
14 [label=<gini = 0.0<br/>samples = 18<br/>value = [0, 18]<br/>class = Brown frog>, fillcolor="#399de5"] ;
13 -> 14 ;
15 [label=<The Second Most Dominant Land Type &le; 4.0<br/>gini = 0.245<br/>samples = 7<br/>value = [1, 6]<br/>class = Brown frog>, fillcolor="#5aade9"] ;
13 -> 15 ;
16 [label=<gini = 0.0<br/>samples = 3<br/>value = [0, 3]<br/>class = Brown frog>, fillcolor="#399de5"] ;
15 -> 16 ;
17 [label=<gini = 0.375<br/>samples = 4<br/>value = [1, 3]<br/>class = Brown frog>, fillcolor="#7bbeee"] ;
15 -> 17 ;
18 [label=<Water Reservoir Surface &le; 150.0<br/>gini = 0.372<br/>samples = 81<br/>value = [20, 61]<br/>class = Brown frog>, fillcolor="#7abdee"] ;
12 -> 18 ;
19 [label=<Type of Reservoir &le; 11.5<br/>gini = 0.48<br/>samples = 5<br/>value = [3, 2]<br/>class = Not Brown frog>, fillcolor="#f6d5bd"] ;
18 -> 19 ;
20 [label=<gini = 0.375<br/>samples = 4<br/>value = [3, 1]<br/>class = Not Brown frog>, fillcolor="#eeab7b"] ;
19 -> 20 ;
21 [label=<gini = 0.0<br/>samples = 1<br/>value = [0, 1]<br/>class = Brown frog>, fillcolor="#399de5"] ;
19 -> 21 ;
22 [label=<Type of Shore &le; 1.5<br/>gini = 0.347<br/>samples = 76<br/>value = [17, 59]<br/>class = Brown frog>, fillcolor="#72b9ec"] ;
18 -> 22 ;
23 [label=<gini = 0.336<br/>samples = 75<br/>value = [16, 59]<br/>class = Brown frog>, fillcolor="#6fb8ec"] ;
22 -> 23 ;
24 [label=<gini = 0.0<br/>samples = 1<br/>value = [1, 0]<br/>class = Not Brown frog>, fillcolor="#e58139"] ;
22 -> 24 ;
}