digraph Tree {
node [shape=box, style="filled, rounded", color="black", fontname=helvetica] ;
edge [fontname=helvetica] ;
0 [label=<Type of Reservoir &le; 11.5<br/>gini = 0.947<br/>samples = 126<br/>value = [3, 3, 1, 1, 1, 1, 1, 1, 13, 1, 1, 13, 3, 5<br/>1, 2, 2, 5, 1, 1, 3, 2, 1, 5, 1, 2, 9, 1<br/>8, 1, 2, 3, 2, 4, 4, 10, 8]<br/>class = y<SUB>8</SUB>>, fillcolor="#ffffff"] ;
1 [label=<Minimum Distance to Building &le; 7.0<br/>gini = 0.949<br/>samples = 94<br/>value = [2, 2, 1, 1, 1, 1, 1, 0, 2, 1, 1, 6, 3, 2<br/>1, 2, 2, 4, 1, 1, 3, 1, 1, 5, 1, 1, 8, 1<br/>8, 1, 1, 3, 2, 3, 2, 10, 8]<br/>class = y<SUB>35</SUB>>, fillcolor="#fefbfa"] ;
0 -> 1 [labeldistance=2.5, labelangle=45, headlabel="True"] ;
2 [label=<Precentage Access to Undeveloped Area &le; 77.5<br/>gini = 0.948<br/>samples = 89<br/>value = [2, 2, 1, 1, 1, 1, 1, 0, 2, 1, 1, 6, 3, 2<br/>0, 2, 2, 4, 1, 1, 3, 1, 1, 5, 0, 1, 8, 1<br/>5, 1, 1, 3, 2, 3, 2, 10, 8]<br/>class = y<SUB>35</SUB>>, fillcolor="#fefafa"] ;
1 -> 2 ;
3 [label=<Minimum Distance to Building &le; 0.5<br/>gini = 0.911<br/>samples = 23<br/>value = [2, 0, 0, 0, 1, 0, 1, 0, 0, 0, 1, 1, 3, 2<br/>0, 0, 1, 0, 0, 1, 2, 0, 1, 0, 0, 0, 3, 0<br/>3, 0, 0, 0, 0, 1, 0, 0, 0]<br/>class = y<SUB>12</SUB>>, fillcolor="#ffffff"] ;
2 -> 3 ;
4 [label=<The Most Dominant Land Type &le; 4.0<br/>gini = 0.907<br/>samples = 18<br/>value = [2, 0, 0, 0, 1, 0, 1, 0, 0, 0, 1, 1, 0, 2<br/>0, 0, 1, 0, 0, 1, 1, 0, 1, 0, 0, 0, 2, 0<br/>3, 0, 0, 0, 0, 1, 0, 0, 0]<br/>class = y<SUB>28</SUB>>, fillcolor="#fdf3fd"] ;
3 -> 4 ;
5 [label=<Precentage Access to Undeveloped Area &le; 62.5<br/>gini = 0.625<br/>samples = 4<br/>value = [0, 0, 0, 0, 0, 0, 0, 0, 0, 0, 0, 0, 0, 0<br/>0, 0, 0, 0, 0, 1, 0, 0, 0, 0, 0, 0, 0, 0<br/>2, 0, 0, 0, 0, 1, 0, 0, 0]<br/>class = y<SUB>28</SUB>>, fillcolor="#f3bdf6"] ;
4 -> 5 ;
6 [label=<gini = 0.0<br/>samples = 2<br/>value = [0, 0, 0, 0, 0, 0, 0, 0, 0, 0, 0, 0, 0, 0<br/>0, 0, 0, 0, 0, 0, 0, 0, 0, 0, 0, 0, 0, 0<br/>2, 0, 0, 0, 0, 0, 0, 0, 0]<br/>class = y<SUB>28</SUB>>, fillcolor="#dc39e5"] ;
5 -> 6 ;
7 [label=<Presence of Fishing &le; 2.0<br/>gini = 0.5<br/>samples = 2<br/>value = [0, 0, 0, 0, 0, 0, 0, 0, 0, 0, 0, 0, 0, 0<br/>0, 0, 0, 0, 0, 1, 0, 0, 0, 0, 0, 0, 0, 0<br/>0, 0, 0, 0, 0, 1, 0, 0, 0]<br/>class = y<SUB>19</SUB>>, fillcolor="#ffffff"] ;
5 -> 7 ;
8 [label=<gini = 0.0<br/>samples = 1<br/>value = [0, 0, 0, 0, 0, 0, 0, 0, 0, 0, 0, 0, 0, 0<br/>0, 0, 0, 0, 0, 0, 0, 0, 0, 0, 0, 0, 0, 0<br/>0, 0, 0, 0, 0, 1, 0, 0, 0]<br/>class = y<SUB>33</SUB>>, fillcolor="#e53961"] ;
7 -> 8 ;
9 [label=<gini = 0.0<br/>samples = 1<br/>value = [0, 0, 0, 0, 0, 0, 0, 0, 0, 0, 0, 0, 0, 0<br/>0, 0, 0, 0, 0, 1, 0, 0, 0, 0, 0, 0, 0, 0<br/>0, 0, 0, 0, 0, 0, 0, 0, 0]<br/>class = y<SUB>19</SUB>>, fillcolor="#3992e5"] ;
7 -> 9 ;
10 [label=<Water Reservoir Surface &le; 1375.0<br/>gini = 0.898<br/>samples = 14<br/>value = [2, 0, 0, 0, 1, 0, 1, 0, 0, 0, 1, 1, 0, 2<br/>0, 0, 1, 0, 0, 0, 1, 0, 1, 0, 0, 0, 2, 0<br/>1, 0, 0, 0, 0, 0, 0, 0, 0]<br/>class = y<SUB>0</SUB>>, fillcolor="#ffffff"] ;
4 -> 10 ;
11 [label=<The Third Most Dominant Land Type &le; 6.0<br/>gini = 0.864<br/>samples = 9<br/>value = [2, 0, 0, 0, 1, 0, 1, 0, 0, 0, 1, 1, 0, 1<br/>0, 0, 1, 0, 0, 0, 0, 0, 0, 0, 0, 0, 0, 0<br/>1, 0, 0, 0, 0, 0, 0, 0, 0]<br/>class = y<SUB>0</SUB>>, fillcolor="#fcefe6"] ;
10 -> 11 ;
12 [label=<Type of Reservoir &le; 3.0<br/>gini = 0.667<br/>samples = 3<br/>value = [0, 0, 0, 0, 0, 0, 0, 0, 0, 0, 0, 1, 0, 0<br/>0, 0, 1, 0, 0, 0, 0, 0, 0, 0, 0, 0, 0, 0<br/>1, 0, 0, 0, 0, 0, 0, 0, 0]<br/>class = y<SUB>11</SUB>>, fillcolor="#ffffff"] ;
11 -> 12 ;
13 [label=<gini = 0.5<br/>samples = 2<br/>value = [0, 0, 0, 0, 0, 0, 0, 0, 0, 0, 0, 0, 0, 0<br/>0, 0, 1, 0, 0, 0, 0, 0, 0, 0, 0, 0, 0, 0<br/>1, 0, 0, 0, 0, 0, 0, 0, 0]<br/>class = y<SUB>16</SUB>>, fillcolor="#ffffff"] ;
12 -> 13 ;
14 [label=<gini = 0.0<br/>samples = 1<br/>value = [0, 0, 0, 0, 0, 0, 0, 0, 0, 0, 0, 1, 0, 0<br/>0, 0, 0, 0, 0, 0, 0, 0, 0, 0, 0, 0, 0, 0<br/>0, 0, 0, 0, 0, 0, 0, 0, 0]<br/>class = y<SUB>11</SUB>>, fillcolor="#39e55b"] ;
12 -> 14 ;
15 [label=<Precentage Access to Undeveloped Area &le; 37.5<br/>gini = 0.778<br/>samples = 6<br/>value = [2, 0, 0, 0, 1, 0, 1, 0, 0, 0, 1, 0, 0, 1<br/>0, 0, 0, 0, 0, 0, 0, 0, 0, 0, 0, 0, 0, 0<br/>0, 0, 0, 0, 0, 0, 0, 0, 0]<br/>class = y<SUB>0</SUB>>, fillcolor="#fae6d7"] ;
11 -> 15 ;
16 [label=<gini = 0.0<br/>samples = 1<br/>value = [0, 0, 0, 0, 1, 0, 0, 0, 0, 0, 0, 0, 0, 0<br/>0, 0, 0, 0, 0, 0, 0, 0, 0, 0, 0, 0, 0, 0<br/>0, 0, 0, 0, 0, 0, 0, 0, 0]<br/>class = y<SUB>4</SUB>>, fillcolor="#dce539"] ;
15 -> 16 ;
17 [label=<gini = 0.72<br/>samples = 5<br/>value = [2, 0, 0, 0, 0, 0, 1, 0, 0, 0, 1, 0, 0, 1<br/>0, 0, 0, 0, 0, 0, 0, 0, 0, 0, 0, 0, 0, 0<br/>0, 0, 0, 0, 0, 0, 0, 0, 0]<br/>class = y<SUB>0</SUB>>, fillcolor="#f8e0ce"] ;
15 -> 17 ;
18 [label=<Water Reservoir Surface &le; 3650.0<br/>gini = 0.72<br/>samples = 5<br/>value = [0, 0, 0, 0, 0, 0, 0, 0, 0, 0, 0, 0, 0, 1<br/>0, 0, 0, 0, 0, 0, 1, 0, 1, 0, 0, 0, 2, 0<br/>0, 0, 0, 0, 0, 0, 0, 0, 0]<br/>class = y<SUB>26</SUB>>, fillcolor="#e8cef8"] ;
10 -> 18 ;
19 [label=<gini = 0.0<br/>samples = 2<br/>value = [0, 0, 0, 0, 0, 0, 0, 0, 0, 0, 0, 0, 0, 0<br/>0, 0, 0, 0, 0, 0, 0, 0, 0, 0, 0, 0, 2, 0<br/>0, 0, 0, 0, 0, 0, 0, 0, 0]<br/>class = y<SUB>26</SUB>>, fillcolor="#a339e5"] ;
18 -> 19 ;
20 [label=<Use of Water Reservoir &le; 1.5<br/>gini = 0.667<br/>samples = 3<br/>value = [0, 0, 0, 0, 0, 0, 0, 0, 0, 0, 0, 0, 0, 1<br/>0, 0, 0, 0, 0, 0, 1, 0, 1, 0, 0, 0, 0, 0<br/>0, 0, 0, 0, 0, 0, 0, 0, 0]<br/>class = y<SUB>13</SUB>>, fillcolor="#ffffff"] ;
18 -> 20 ;
21 [label=<gini = 0.0<br/>samples = 1<br/>value = [0, 0, 0, 0, 0, 0, 0, 0, 0, 0, 0, 0, 0, 1<br/>0, 0, 0, 0, 0, 0, 0, 0, 0, 0, 0, 0, 0, 0<br/>0, 0, 0, 0, 0, 0, 0, 0, 0]<br/>class = y<SUB>13</SUB>>, fillcolor="#39e592"] ;
20 -> 21 ;
22 [label=<gini = 0.5<br/>samples = 2<br/>value = [0, 0, 0, 0, 0, 0, 0, 0, 0, 0, 0, 0, 0, 0<br/>0, 0, 0, 0, 0, 0, 1, 0, 1, 0, 0, 0, 0, 0<br/>0, 0, 0, 0, 0, 0, 0, 0, 0]<br/>class = y<SUB>20</SUB>>, fillcolor="#ffffff"] ;
20 -> 22 ;
23 [label=<Precentage Access to Undeveloped Area &le; 62.5<br/>gini = 0.56<br/>samples = 5<br/>value = [0, 0, 0, 0, 0, 0, 0, 0, 0, 0, 0, 0, 3, 0<br/>0, 0, 0, 0, 0, 0, 1, 0, 0, 0, 0, 0, 1, 0<br/>0, 0, 0, 0, 0, 0, 0, 0, 0]<br/>class = y<SUB>12</SUB>>, fillcolor="#9cf2ba"] ;
3 -> 23 ;
24 [label=<Minimum Distance to Building &le; 3.0<br/>gini = 0.5<br/>samples = 2<br/>value = [0, 0, 0, 0, 0, 0, 0, 0, 0, 0, 0, 0, 0, 0<br/>0, 0, 0, 0, 0, 0, 1, 0, 0, 0, 0, 0, 1, 0<br/>0, 0, 0, 0, 0, 0, 0, 0, 0]<br/>class = y<SUB>20</SUB>>, fillcolor="#ffffff"] ;
23 -> 24 ;
25 [label=<gini = 0.0<br/>samples = 1<br/>value = [0, 0, 0, 0, 0, 0, 0, 0, 0, 0, 0, 0, 0, 0<br/>0, 0, 0, 0, 0, 0, 0, 0, 0, 0, 0, 0, 1, 0<br/>0, 0, 0, 0, 0, 0, 0, 0, 0]<br/>class = y<SUB>26</SUB>>, fillcolor="#a339e5"] ;
24 -> 25 ;
26 [label=<gini = 0.0<br/>samples = 1<br/>value = [0, 0, 0, 0, 0, 0, 0, 0, 0, 0, 0, 0, 0, 0<br/>0, 0, 0, 0, 0, 0, 1, 0, 0, 0, 0, 0, 0, 0<br/>0, 0, 0, 0, 0, 0, 0, 0, 0]<br/>class = y<SUB>20</SUB>>, fillcolor="#3975e5"] ;
24 -> 26 ;
27 [label=<gini = 0.0<br/>samples = 3<br/>value = [0, 0, 0, 0, 0, 0, 0, 0, 0, 0, 0, 0, 3, 0<br/>0, 0, 0, 0, 0, 0, 0, 0, 0, 0, 0, 0, 0, 0<br/>0, 0, 0, 0, 0, 0, 0, 0, 0]<br/>class = y<SUB>12</SUB>>, fillcolor="#39e575"] ;
23 -> 27 ;
28 [label=<The Second Most Dominant Land Type &le; 1.5<br/>gini = 0.93<br/>samples = 66<br/>value = [0, 2, 1, 1, 0, 1, 0, 0, 2, 1, 0, 5, 0, 0<br/>0, 2, 1, 4, 1, 0, 1, 1, 0, 5, 0, 1, 5, 1<br/>2, 1, 1, 3, 2, 2, 2, 10, 8]<br/>class = y<SUB>35</SUB>>, fillcolor="#fef9f8"] ;
2 -> 28 ;
29 [label=<Use of Water Reservoir &le; 1.5<br/>gini = 0.656<br/>samples = 8<br/>value = [0, 2, 0, 0, 0, 0, 0, 0, 0, 1, 0, 0, 0, 0<br/>0, 0, 0, 0, 0, 0, 0, 0, 0, 0, 0, 0, 1, 0<br/>0, 0, 0, 0, 0, 0, 0, 4, 0]<br/>class = y<SUB>35</SUB>>, fillcolor="#f6c2bd"] ;
28 -> 29 ;
30 [label=<The Third Most Dominant Land Type &le; 8.0<br/>gini = 0.72<br/>samples = 5<br/>value = [0, 2, 0, 0, 0, 0, 0, 0, 0, 1, 0, 0, 0, 0<br/>0, 0, 0, 0, 0, 0, 0, 0, 0, 0, 0, 0, 1, 0<br/>0, 0, 0, 0, 0, 0, 0, 1, 0]<br/>class = y<SUB>1</SUB>>, fillcolor="#f8e6ce"] ;
29 -> 30 ;
31 [label=<Minimum Distance to Road &le; 1.5<br/>gini = 0.667<br/>samples = 3<br/>value = [0, 0, 0, 0, 0, 0, 0, 0, 0, 1, 0, 0, 0, 0<br/>0, 0, 0, 0, 0, 0, 0, 0, 0, 0, 0, 0, 1, 0<br/>0, 0, 0, 0, 0, 0, 0, 1, 0]<br/>class = y<SUB>9</SUB>>, fillcolor="#ffffff"] ;
30 -> 31 ;
32 [label=<gini = 0.0<br/>samples = 1<br/>value = [0, 0, 0, 0, 0, 0, 0, 0, 0, 0, 0, 0, 0, 0<br/>0, 0, 0, 0, 0, 0, 0, 0, 0, 0, 0, 0, 0, 0<br/>0, 0, 0, 0, 0, 0, 0, 1, 0]<br/>class = y<SUB>35</SUB>>, fillcolor="#e54739"] ;
31 -> 32 ;
33 [label=<Minimum Distance to Road &le; 3.5<br/>gini = 0.5<br/>samples = 2<br/>value = [0, 0, 0, 0, 0, 0, 0, 0, 0, 1, 0, 0, 0, 0<br/>0, 0, 0, 0, 0, 0, 0, 0, 0, 0, 0, 0, 1, 0<br/>0, 0, 0, 0, 0, 0, 0, 0, 0]<br/>class = y<SUB>9</SUB>>, fillcolor="#ffffff"] ;
31 -> 33 ;
34 [label=<gini = 0.0<br/>samples = 1<br/>value = [0, 0, 0, 0, 0, 0, 0, 0, 0, 0, 0, 0, 0, 0<br/>0, 0, 0, 0, 0, 0, 0, 0, 0, 0, 0, 0, 1, 0<br/>0, 0, 0, 0, 0, 0, 0, 0, 0]<br/>class = y<SUB>26</SUB>>, fillcolor="#a339e5"] ;
33 -> 34 ;
35 [label=<gini = 0.0<br/>samples = 1<br/>value = [0, 0, 0, 0, 0, 0, 0, 0, 0, 1, 0, 0, 0, 0<br/>0, 0, 0, 0, 0, 0, 0, 0, 0, 0, 0, 0, 0, 0<br/>0, 0, 0, 0, 0, 0, 0, 0, 0]<br/>class = y<SUB>9</SUB>>, fillcolor="#50e539"] ;
33 -> 35 ;
36 [label=<gini = 0.0<br/>samples = 2<br/>value = [0, 2, 0, 0, 0, 0, 0, 0, 0, 0, 0, 0, 0, 0<br/>0, 0, 0, 0, 0, 0, 0, 0, 0, 0, 0, 0, 0, 0<br/>0, 0, 0, 0, 0, 0, 0, 0, 0]<br/>class = y<SUB>1</SUB>>, fillcolor="#e59a39"] ;
30 -> 36 ;
37 [label=<gini = 0.0<br/>samples = 3<br/>value = [0, 0, 0, 0, 0, 0, 0, 0, 0, 0, 0, 0, 0, 0<br/>0, 0, 0, 0, 0, 0, 0, 0, 0, 0, 0, 0, 0, 0<br/>0, 0, 0, 0, 0, 0, 0, 3, 0]<br/>class = y<SUB>35</SUB>>, fillcolor="#e54739"] ;
29 -> 37 ;
38 [label=<Use of Water Reservoir &le; 0.5<br/>gini = 0.933<br/>samples = 58<br/>value = [0, 0, 1, 1, 0, 1, 0, 0, 2, 0, 0, 5, 0, 0<br/>0, 2, 1, 4, 1, 0, 1, 1, 0, 5, 0, 1, 4, 1<br/>2, 1, 1, 3, 2, 2, 2, 6, 8]<br/>class = y<SUB>36</SUB>>, fillcolor="#fef9f7"] ;
28 -> 38 ;
39 [label=<Minimum Distance to Road &le; 3.5<br/>gini = 0.914<br/>samples = 31<br/>value = [0, 0, 1, 1, 0, 1, 0, 0, 2, 0, 0, 2, 0, 0<br/>0, 2, 1, 2, 1, 0, 1, 1, 0, 1, 0, 0, 0, 1<br/>0, 1, 1, 0, 1, 1, 1, 2, 7]<br/>class = y<SUB>36</SUB>>, fillcolor="#fbe4dd"] ;
38 -> 39 ;
40 [label=<The Most Dominant Land Type &le; 6.5<br/>gini = 0.84<br/>samples = 18<br/>value = [0, 0, 1, 0, 0, 0, 0, 0, 2, 0, 0, 1, 0, 0<br/>0, 1, 1, 2, 0, 0, 1, 1, 0, 0, 0, 0, 0, 0<br/>0, 0, 0, 0, 0, 1, 1, 0, 6]<br/>class = y<SUB>36</SUB>>, fillcolor="#f8d8ce"] ;
39 -> 40 ;
41 [label=<Minimum Distance to Building &le; 0.5<br/>gini = 0.782<br/>samples = 15<br/>value = [0, 0, 1, 0, 0, 0, 0, 0, 2, 0, 0, 1, 0, 0<br/>0, 0, 1, 2, 0, 0, 1, 0, 0, 0, 0, 0, 0, 0<br/>0, 0, 0, 0, 0, 0, 1, 0, 6]<br/>class = y<SUB>36</SUB>>, fillcolor="#f7cfc2"] ;
40 -> 41 ;
42 [label=<gini = 0.5<br/>samples = 2<br/>value = [0, 0, 0, 0, 0, 0, 0, 0, 0, 0, 0, 0, 0, 0<br/>0, 0, 1, 0, 0, 0, 0, 0, 0, 0, 0, 0, 0, 0<br/>0, 0, 0, 0, 0, 0, 1, 0, 0]<br/>class = y<SUB>16</SUB>>, fillcolor="#ffffff"] ;
41 -> 42 ;
43 [label=<gini = 0.722<br/>samples = 13<br/>value = [0, 0, 1, 0, 0, 0, 0, 0, 2, 0, 0, 1, 0, 0<br/>0, 0, 0, 2, 0, 0, 1, 0, 0, 0, 0, 0, 0, 0<br/>0, 0, 0, 0, 0, 0, 0, 0, 6]<br/>class = y<SUB>36</SUB>>, fillcolor="#f6c7b7"] ;
41 -> 43 ;
44 [label=<The Most Dominant Land Type &le; 8.5<br/>gini = 0.667<br/>samples = 3<br/>value = [0, 0, 0, 0, 0, 0, 0, 0, 0, 0, 0, 0, 0, 0<br/>0, 1, 0, 0, 0, 0, 0, 1, 0, 0, 0, 0, 0, 0<br/>0, 0, 0, 0, 0, 1, 0, 0, 0]<br/>class = y<SUB>15</SUB>>, fillcolor="#ffffff"] ;
40 -> 44 ;
45 [label=<gini = 0.0<br/>samples = 1<br/>value = [0, 0, 0, 0, 0, 0, 0, 0, 0, 0, 0, 0, 0, 0<br/>0, 0, 0, 0, 0, 0, 0, 0, 0, 0, 0, 0, 0, 0<br/>0, 0, 0, 0, 0, 1, 0, 0, 0]<br/>class = y<SUB>33</SUB>>, fillcolor="#e53961"] ;
44 -> 45 ;
46 [label=<gini = 0.5<br/>samples = 2<br/>value = [0, 0, 0, 0, 0, 0, 0, 0, 0, 0, 0, 0, 0, 0<br/>0, 1, 0, 0, 0, 0, 0, 1, 0, 0, 0, 0, 0, 0<br/>0, 0, 0, 0, 0, 0, 0, 0, 0]<br/>class = y<SUB>15</SUB>>, fillcolor="#ffffff"] ;
44 -> 46 ;
47 [label=<Water Reservoir Surface &le; 850.0<br/>gini = 0.911<br/>samples = 13<br/>value = [0, 0, 0, 1, 0, 1, 0, 0, 0, 0, 0, 1, 0, 0<br/>0, 1, 0, 0, 1, 0, 0, 0, 0, 1, 0, 0, 0, 1<br/>0, 1, 1, 0, 1, 0, 0, 2, 1]<br/>class = y<SUB>35</SUB>>, fillcolor="#fdf0ee"] ;
39 -> 47 ;
48 [label=<Maintenance Status of Reservoir &le; 1.0<br/>gini = 0.8<br/>samples = 5<br/>value = [0, 0, 0, 1, 0, 1, 0, 0, 0, 0, 0, 0, 0, 0<br/>0, 0, 0, 0, 1, 0, 0, 0, 0, 1, 0, 0, 0, 0<br/>0, 0, 0, 0, 1, 0, 0, 0, 0]<br/>class = y<SUB>3</SUB>>, fillcolor="#ffffff"] ;
47 -> 48 ;
49 [label=<gini = 0.75<br/>samples = 4<br/>value = [0, 0, 0, 1, 0, 1, 0, 0, 0, 0, 0, 0, 0, 0<br/>0, 0, 0, 0, 0, 0, 0, 0, 0, 1, 0, 0, 0, 0<br/>0, 0, 0, 0, 1, 0, 0, 0, 0]<br/>class = y<SUB>3</SUB>>, fillcolor="#ffffff"] ;
48 -> 49 ;
50 [label=<gini = 0.0<br/>samples = 1<br/>value = [0, 0, 0, 0, 0, 0, 0, 0, 0, 0, 0, 0, 0, 0<br/>0, 0, 0, 0, 1, 0, 0, 0, 0, 0, 0, 0, 0, 0<br/>0, 0, 0, 0, 0, 0, 0, 0, 0]<br/>class = y<SUB>18</SUB>>, fillcolor="#39ace5"] ;
48 -> 50 ;
51 [label=<Presence of Fishing &le; 0.5<br/>gini = 0.844<br/>samples = 8<br/>value = [0, 0, 0, 0, 0, 0, 0, 0, 0, 0, 0, 1, 0, 0<br/>0, 1, 0, 0, 0, 0, 0, 0, 0, 0, 0, 0, 0, 1<br/>0, 1, 1, 0, 0, 0, 0, 2, 1]<br/>class = y<SUB>35</SUB>>, fillcolor="#fbe5e3"] ;
47 -> 51 ;
52 [label=<gini = 0.72<br/>samples = 5<br/>value = [0, 0, 0, 0, 0, 0, 0, 0, 0, 0, 0, 1, 0, 0<br/>0, 0, 0, 0, 0, 0, 0, 0, 0, 0, 0, 0, 0, 0<br/>0, 1, 1, 0, 0, 0, 0, 2, 0]<br/>class = y<SUB>35</SUB>>, fillcolor="#f8d1ce"] ;
51 -> 52 ;
53 [label=<gini = 0.667<br/>samples = 3<br/>value = [0, 0, 0, 0, 0, 0, 0, 0, 0, 0, 0, 0, 0, 0<br/>0, 1, 0, 0, 0, 0, 0, 0, 0, 0, 0, 0, 0, 1<br/>0, 0, 0, 0, 0, 0, 0, 0, 1]<br/>class = y<SUB>15</SUB>>, fillcolor="#ffffff"] ;
51 -> 53 ;
54 [label=<The Third Most Dominant Land Type &le; 9.5<br/>gini = 0.892<br/>samples = 27<br/>value = [0, 0, 0, 0, 0, 0, 0, 0, 0, 0, 0, 3, 0, 0<br/>0, 0, 0, 2, 0, 0, 0, 0, 0, 4, 0, 1, 4, 0<br/>2, 0, 0, 3, 1, 1, 1, 4, 1]<br/>class = y<SUB>23</SUB>>, fillcolor="#ffffff"] ;
38 -> 54 ;
55 [label=<The Third Most Dominant Land Type &le; 6.5<br/>gini = 0.884<br/>samples = 21<br/>value = [0, 0, 0, 0, 0, 0, 0, 0, 0, 0, 0, 2, 0, 0<br/>0, 0, 0, 2, 0, 0, 0, 0, 0, 4, 0, 0, 3, 0<br/>2, 0, 0, 3, 1, 1, 1, 1, 1]<br/>class = y<SUB>23</SUB>>, fillcolor="#f5f4fe"] ;
54 -> 55 ;
56 [label=<Presence of Fishing &le; 3.5<br/>gini = 0.881<br/>samples = 19<br/>value = [0, 0, 0, 0, 0, 0, 0, 0, 0, 0, 0, 2, 0, 0<br/>0, 0, 0, 2, 0, 0, 0, 0, 0, 4, 0, 0, 3, 0<br/>2, 0, 0, 1, 1, 1, 1, 1, 1]<br/>class = y<SUB>23</SUB>>, fillcolor="#f4f3fd"] ;
55 -> 56 ;
57 [label=<gini = 0.888<br/>samples = 13<br/>value = [0, 0, 0, 0, 0, 0, 0, 0, 0, 0, 0, 2, 0, 0<br/>0, 0, 0, 2, 0, 0, 0, 0, 0, 1, 0, 0, 1, 0<br/>2, 0, 0, 1, 1, 1, 0, 1, 1]<br/>class = y<SUB>11</SUB>>, fillcolor="#ffffff"] ;
56 -> 57 ;
58 [label=<gini = 0.611<br/>samples = 6<br/>value = [0, 0, 0, 0, 0, 0, 0, 0, 0, 0, 0, 0, 0, 0<br/>0, 0, 0, 0, 0, 0, 0, 0, 0, 3, 0, 0, 2, 0<br/>0, 0, 0, 0, 0, 0, 1, 0, 0]<br/>class = y<SUB>23</SUB>>, fillcolor="#d3cef8"] ;
56 -> 58 ;
59 [label=<gini = 0.0<br/>samples = 2<br/>value = [0, 0, 0, 0, 0, 0, 0, 0, 0, 0, 0, 0, 0, 0<br/>0, 0, 0, 0, 0, 0, 0, 0, 0, 0, 0, 0, 0, 0<br/>0, 0, 0, 2, 0, 0, 0, 0, 0]<br/>class = y<SUB>31</SUB>>, fillcolor="#e5399a"] ;
55 -> 59 ;
60 [label=<Presence of Vegetation &le; 0.5<br/>gini = 0.667<br/>samples = 6<br/>value = [0, 0, 0, 0, 0, 0, 0, 0, 0, 0, 0, 1, 0, 0<br/>0, 0, 0, 0, 0, 0, 0, 0, 0, 0, 0, 1, 1, 0<br/>0, 0, 0, 0, 0, 0, 0, 3, 0]<br/>class = y<SUB>35</SUB>>, fillcolor="#f5b5b0"] ;
54 -> 60 ;
61 [label=<Presence of Fishing &le; 3.5<br/>gini = 0.5<br/>samples = 2<br/>value = [0, 0, 0, 0, 0, 0, 0, 0, 0, 0, 0, 1, 0, 0<br/>0, 0, 0, 0, 0, 0, 0, 0, 0, 0, 0, 0, 1, 0<br/>0, 0, 0, 0, 0, 0, 0, 0, 0]<br/>class = y<SUB>11</SUB>>, fillcolor="#ffffff"] ;
60 -> 61 ;
62 [label=<gini = 0.0<br/>samples = 1<br/>value = [0, 0, 0, 0, 0, 0, 0, 0, 0, 0, 0, 0, 0, 0<br/>0, 0, 0, 0, 0, 0, 0, 0, 0, 0, 0, 0, 1, 0<br/>0, 0, 0, 0, 0, 0, 0, 0, 0]<br/>class = y<SUB>26</SUB>>, fillcolor="#a339e5"] ;
61 -> 62 ;
63 [label=<gini = 0.0<br/>samples = 1<br/>value = [0, 0, 0, 0, 0, 0, 0, 0, 0, 0, 0, 1, 0, 0<br/>0, 0, 0, 0, 0, 0, 0, 0, 0, 0, 0, 0, 0, 0<br/>0, 0, 0, 0, 0, 0, 0, 0, 0]<br/>class = y<SUB>11</SUB>>, fillcolor="#39e55b"] ;
61 -> 63 ;
64 [label=<Minimum Distance to Road &le; 3.5<br/>gini = 0.375<br/>samples = 4<br/>value = [0, 0, 0, 0, 0, 0, 0, 0, 0, 0, 0, 0, 0, 0<br/>0, 0, 0, 0, 0, 0, 0, 0, 0, 0, 0, 1, 0, 0<br/>0, 0, 0, 0, 0, 0, 0, 3, 0]<br/>class = y<SUB>35</SUB>>, fillcolor="#ee847b"] ;
60 -> 64 ;
65 [label=<gini = 0.0<br/>samples = 3<br/>value = [0, 0, 0, 0, 0, 0, 0, 0, 0, 0, 0, 0, 0, 0<br/>0, 0, 0, 0, 0, 0, 0, 0, 0, 0, 0, 0, 0, 0<br/>0, 0, 0, 0, 0, 0, 0, 3, 0]<br/>class = y<SUB>35</SUB>>, fillcolor="#e54739"] ;
64 -> 65 ;
66 [label=<gini = 0.0<br/>samples = 1<br/>value = [0, 0, 0, 0, 0, 0, 0, 0, 0, 0, 0, 0, 0, 0<br/>0, 0, 0, 0, 0, 0, 0, 0, 0, 0, 0, 1, 0, 0<br/>0, 0, 0, 0, 0, 0, 0, 0, 0]<br/>class = y<SUB>25</SUB>>, fillcolor="#8939e5"] ;
64 -> 66 ;
67 [label=<Presence of Vegetation &le; 1.5<br/>gini = 0.56<br/>samples = 5<br/>value = [0, 0, 0, 0, 0, 0, 0, 0, 0, 0, 0, 0, 0, 0<br/>1, 0, 0, 0, 0, 0, 0, 0, 0, 0, 1, 0, 0, 0<br/>3, 0, 0, 0, 0, 0, 0, 0, 0]<br/>class = y<SUB>28</SUB>>, fillcolor="#ee9cf2"] ;
1 -> 67 ;
68 [label=<gini = 0.0<br/>samples = 1<br/>value = [0, 0, 0, 0, 0, 0, 0, 0, 0, 0, 0, 0, 0, 0<br/>1, 0, 0, 0, 0, 0, 0, 0, 0, 0, 0, 0, 0, 0<br/>0, 0, 0, 0, 0, 0, 0, 0, 0]<br/>class = y<SUB>14</SUB>>, fillcolor="#39e5ae"] ;
67 -> 68 ;
69 [label=<The Third Most Dominant Land Type &le; 6.0<br/>gini = 0.375<br/>samples = 4<br/>value = [0, 0, 0, 0, 0, 0, 0, 0, 0, 0, 0, 0, 0, 0<br/>0, 0, 0, 0, 0, 0, 0, 0, 0, 0, 1, 0, 0, 0<br/>3, 0, 0, 0, 0, 0, 0, 0, 0]<br/>class = y<SUB>28</SUB>>, fillcolor="#e87bee"] ;
67 -> 69 ;
70 [label=<gini = 0.0<br/>samples = 2<br/>value = [0, 0, 0, 0, 0, 0, 0, 0, 0, 0, 0, 0, 0, 0<br/>0, 0, 0, 0, 0, 0, 0, 0, 0, 0, 0, 0, 0, 0<br/>2, 0, 0, 0, 0, 0, 0, 0, 0]<br/>class = y<SUB>28</SUB>>, fillcolor="#dc39e5"] ;
69 -> 70 ;
71 [label=<Minimum Distance to Road &le; 9.5<br/>gini = 0.5<br/>samples = 2<br/>value = [0, 0, 0, 0, 0, 0, 0, 0, 0, 0, 0, 0, 0, 0<br/>0, 0, 0, 0, 0, 0, 0, 0, 0, 0, 1, 0, 0, 0<br/>1, 0, 0, 0, 0, 0, 0, 0, 0]<br/>class = y<SUB>24</SUB>>, fillcolor="#ffffff"] ;
69 -> 71 ;
72 [label=<gini = 0.0<br/>samples = 1<br/>value = [0, 0, 0, 0, 0, 0, 0, 0, 0, 0, 0, 0, 0, 0<br/>0, 0, 0, 0, 0, 0, 0, 0, 0, 0, 0, 0, 0, 0<br/>1, 0, 0, 0, 0, 0, 0, 0, 0]<br/>class = y<SUB>28</SUB>>, fillcolor="#dc39e5"] ;
71 -> 72 ;
73 [label=<gini = 0.0<br/>samples = 1<br/>value = [0, 0, 0, 0, 0, 0, 0, 0, 0, 0, 0, 0, 0, 0<br/>0, 0, 0, 0, 0, 0, 0, 0, 0, 0, 1, 0, 0, 0<br/>0, 0, 0, 0, 0, 0, 0, 0, 0]<br/>class = y<SUB>24</SUB>>, fillcolor="#6d39e5"] ;
71 -> 73 ;
74 [label=<Minimum Distance to Road &le; 1.5<br/>gini = 0.812<br/>samples = 32<br/>value = [1, 1, 0, 0, 0, 0, 0, 1, 11, 0, 0, 7, 0, 3<br/>0, 0, 0, 1, 0, 0, 0, 1, 0, 0, 0, 1, 1, 0<br/>0, 0, 1, 0, 0, 1, 2, 0, 0]<br/>class = y<SUB>8</SUB>>, fillcolor="#e8fbdf"] ;
0 -> 74 [labeldistance=2.5, labelangle=-45, headlabel="False"] ;
75 [label=<The Second Most Dominant Land Type &le; 8.0<br/>gini = 0.675<br/>samples = 13<br/>value = [0, 1, 0, 0, 0, 0, 0, 0, 4, 0, 0, 6, 0, 0<br/>0, 0, 0, 1, 0, 0, 0, 0, 0, 0, 0, 0, 0, 0<br/>0, 0, 0, 0, 0, 0, 1, 0, 0]<br/>class = y<SUB>11</SUB>>, fillcolor="#d3f9db"] ;
74 -> 75 ;
76 [label=<The Most Dominant Land Type &le; 1.5<br/>gini = 0.406<br/>samples = 8<br/>value = [0, 1, 0, 0, 0, 0, 0, 0, 1, 0, 0, 6, 0, 0<br/>0, 0, 0, 0, 0, 0, 0, 0, 0, 0, 0, 0, 0, 0<br/>0, 0, 0, 0, 0, 0, 0, 0, 0]<br/>class = y<SUB>11</SUB>>, fillcolor="#72ec8a"] ;
75 -> 76 ;
77 [label=<The Second Most Dominant Land Type &le; 4.0<br/>gini = 0.667<br/>samples = 3<br/>value = [0, 1, 0, 0, 0, 0, 0, 0, 1, 0, 0, 1, 0, 0<br/>0, 0, 0, 0, 0, 0, 0, 0, 0, 0, 0, 0, 0, 0<br/>0, 0, 0, 0, 0, 0, 0, 0, 0]<br/>class = y<SUB>1</SUB>>, fillcolor="#ffffff"] ;
76 -> 77 ;
78 [label=<Minimum Distance to Building &le; 3.0<br/>gini = 0.5<br/>samples = 2<br/>value = [0, 0, 0, 0, 0, 0, 0, 0, 1, 0, 0, 1, 0, 0<br/>0, 0, 0, 0, 0, 0, 0, 0, 0, 0, 0, 0, 0, 0<br/>0, 0, 0, 0, 0, 0, 0, 0, 0]<br/>class = y<SUB>8</SUB>>, fillcolor="#ffffff"] ;
77 -> 78 ;
79 [label=<gini = 0.0<br/>samples = 1<br/>value = [0, 0, 0, 0, 0, 0, 0, 0, 1, 0, 0, 0, 0, 0<br/>0, 0, 0, 0, 0, 0, 0, 0, 0, 0, 0, 0, 0, 0<br/>0, 0, 0, 0, 0, 0, 0, 0, 0]<br/>class = y<SUB>8</SUB>>, fillcolor="#6de539"] ;
78 -> 79 ;
80 [label=<gini = 0.0<br/>samples = 1<br/>value = [0, 0, 0, 0, 0, 0, 0, 0, 0, 0, 0, 1, 0, 0<br/>0, 0, 0, 0, 0, 0, 0, 0, 0, 0, 0, 0, 0, 0<br/>0, 0, 0, 0, 0, 0, 0, 0, 0]<br/>class = y<SUB>11</SUB>>, fillcolor="#39e55b"] ;
78 -> 80 ;
81 [label=<gini = 0.0<br/>samples = 1<br/>value = [0, 1, 0, 0, 0, 0, 0, 0, 0, 0, 0, 0, 0, 0<br/>0, 0, 0, 0, 0, 0, 0, 0, 0, 0, 0, 0, 0, 0<br/>0, 0, 0, 0, 0, 0, 0, 0, 0]<br/>class = y<SUB>1</SUB>>, fillcolor="#e59a39"] ;
77 -> 81 ;
82 [label=<gini = 0.0<br/>samples = 5<br/>value = [0, 0, 0, 0, 0, 0, 0, 0, 0, 0, 0, 5, 0, 0<br/>0, 0, 0, 0, 0, 0, 0, 0, 0, 0, 0, 0, 0, 0<br/>0, 0, 0, 0, 0, 0, 0, 0, 0]<br/>class = y<SUB>11</SUB>>, fillcolor="#39e55b"] ;
76 -> 82 ;
83 [label=<Type of Reservoir &le; 13.0<br/>gini = 0.56<br/>samples = 5<br/>value = [0, 0, 0, 0, 0, 0, 0, 0, 3, 0, 0, 0, 0, 0<br/>0, 0, 0, 1, 0, 0, 0, 0, 0, 0, 0, 0, 0, 0<br/>0, 0, 0, 0, 0, 0, 1, 0, 0]<br/>class = y<SUB>8</SUB>>, fillcolor="#b6f29c"] ;
75 -> 83 ;
84 [label=<gini = 0.0<br/>samples = 1<br/>value = [0, 0, 0, 0, 0, 0, 0, 0, 0, 0, 0, 0, 0, 0<br/>0, 0, 0, 0, 0, 0, 0, 0, 0, 0, 0, 0, 0, 0<br/>0, 0, 0, 0, 0, 0, 1, 0, 0]<br/>class = y<SUB>34</SUB>>, fillcolor="#e53947"] ;
83 -> 84 ;
85 [label=<The Third Most Dominant Land Type &le; 6.5<br/>gini = 0.375<br/>samples = 4<br/>value = [0, 0, 0, 0, 0, 0, 0, 0, 3, 0, 0, 0, 0, 0<br/>0, 0, 0, 1, 0, 0, 0, 0, 0, 0, 0, 0, 0, 0<br/>0, 0, 0, 0, 0, 0, 0, 0, 0]<br/>class = y<SUB>8</SUB>>, fillcolor="#9eee7b"] ;
83 -> 85 ;
86 [label=<gini = 0.0<br/>samples = 2<br/>value = [0, 0, 0, 0, 0, 0, 0, 0, 2, 0, 0, 0, 0, 0<br/>0, 0, 0, 0, 0, 0, 0, 0, 0, 0, 0, 0, 0, 0<br/>0, 0, 0, 0, 0, 0, 0, 0, 0]<br/>class = y<SUB>8</SUB>>, fillcolor="#6de539"] ;
85 -> 86 ;
87 [label=<Precentage Access to Undeveloped Area &le; 87.5<br/>gini = 0.5<br/>samples = 2<br/>value = [0, 0, 0, 0, 0, 0, 0, 0, 1, 0, 0, 0, 0, 0<br/>0, 0, 0, 1, 0, 0, 0, 0, 0, 0, 0, 0, 0, 0<br/>0, 0, 0, 0, 0, 0, 0, 0, 0]<br/>class = y<SUB>8</SUB>>, fillcolor="#ffffff"] ;
85 -> 87 ;
88 [label=<gini = 0.0<br/>samples = 1<br/>value = [0, 0, 0, 0, 0, 0, 0, 0, 1, 0, 0, 0, 0, 0<br/>0, 0, 0, 0, 0, 0, 0, 0, 0, 0, 0, 0, 0, 0<br/>0, 0, 0, 0, 0, 0, 0, 0, 0]<br/>class = y<SUB>8</SUB>>, fillcolor="#6de539"] ;
87 -> 88 ;
89 [label=<gini = 0.0<br/>samples = 1<br/>value = [0, 0, 0, 0, 0, 0, 0, 0, 0, 0, 0, 0, 0, 0<br/>0, 0, 0, 1, 0, 0, 0, 0, 0, 0, 0, 0, 0, 0<br/>0, 0, 0, 0, 0, 0, 0, 0, 0]<br/>class = y<SUB>17</SUB>>, fillcolor="#39c8e5"] ;
87 -> 89 ;
90 [label=<The Most Dominant Land Type &le; 12.0<br/>gini = 0.814<br/>samples = 19<br/>value = [1, 0, 0, 0, 0, 0, 0, 1, 7, 0, 0, 1, 0, 3<br/>0, 0, 0, 0, 0, 0, 0, 1, 0, 0, 0, 1, 1, 0<br/>0, 0, 1, 0, 0, 1, 1, 0, 0]<br/>class = y<SUB>8</SUB>>, fillcolor="#daf8ce"] ;
74 -> 90 ;
91 [label=<The Second Most Dominant Land Type &le; 4.5<br/>gini = 0.796<br/>samples = 18<br/>value = [1, 0, 0, 0, 0, 0, 0, 1, 7, 0, 0, 1, 0, 3<br/>0, 0, 0, 0, 0, 0, 0, 1, 0, 0, 0, 1, 1, 0<br/>0, 0, 1, 0, 0, 0, 1, 0, 0]<br/>class = y<SUB>8</SUB>>, fillcolor="#d8f8ca"] ;
90 -> 91 ;
92 [label=<Minimum Distance to Building &le; 9.5<br/>gini = 0.708<br/>samples = 12<br/>value = [0, 0, 0, 0, 0, 0, 0, 1, 6, 0, 0, 1, 0, 1<br/>0, 0, 0, 0, 0, 0, 0, 1, 0, 0, 0, 0, 1, 0<br/>0, 0, 1, 0, 0, 0, 0, 0, 0]<br/>class = y<SUB>8</SUB>>, fillcolor="#bdf3a5"] ;
91 -> 92 ;
93 [label=<Type of Reservoir &le; 13.0<br/>gini = 0.6<br/>samples = 10<br/>value = [0, 0, 0, 0, 0, 0, 0, 1, 6, 0, 0, 1, 0, 0<br/>0, 0, 0, 0, 0, 0, 0, 0, 0, 0, 0, 0, 1, 0<br/>0, 0, 1, 0, 0, 0, 0, 0, 0]<br/>class = y<SUB>8</SUB>>, fillcolor="#aef191"] ;
92 -> 93 ;
94 [label=<The Third Most Dominant Land Type &le; 4.0<br/>gini = 0.32<br/>samples = 5<br/>value = [0, 0, 0, 0, 0, 0, 0, 1, 4, 0, 0, 0, 0, 0<br/>0, 0, 0, 0, 0, 0, 0, 0, 0, 0, 0, 0, 0, 0<br/>0, 0, 0, 0, 0, 0, 0, 0, 0]<br/>class = y<SUB>8</SUB>>, fillcolor="#92ec6a"] ;
93 -> 94 ;
95 [label=<gini = 0.0<br/>samples = 4<br/>value = [0, 0, 0, 0, 0, 0, 0, 0, 4, 0, 0, 0, 0, 0<br/>0, 0, 0, 0, 0, 0, 0, 0, 0, 0, 0, 0, 0, 0<br/>0, 0, 0, 0, 0, 0, 0, 0, 0]<br/>class = y<SUB>8</SUB>>, fillcolor="#6de539"] ;
94 -> 95 ;
96 [label=<gini = 0.0<br/>samples = 1<br/>value = [0, 0, 0, 0, 0, 0, 0, 1, 0, 0, 0, 0, 0, 0<br/>0, 0, 0, 0, 0, 0, 0, 0, 0, 0, 0, 0, 0, 0<br/>0, 0, 0, 0, 0, 0, 0, 0, 0]<br/>class = y<SUB>7</SUB>>, fillcolor="#86e539"] ;
94 -> 96 ;
97 [label=<The Third Most Dominant Land Type &le; 8.5<br/>gini = 0.72<br/>samples = 5<br/>value = [0, 0, 0, 0, 0, 0, 0, 0, 2, 0, 0, 1, 0, 0<br/>0, 0, 0, 0, 0, 0, 0, 0, 0, 0, 0, 0, 1, 0<br/>0, 0, 1, 0, 0, 0, 0, 0, 0]<br/>class = y<SUB>8</SUB>>, fillcolor="#daf8ce"] ;
93 -> 97 ;
98 [label=<The Third Most Dominant Land Type &le; 4.0<br/>gini = 0.667<br/>samples = 3<br/>value = [0, 0, 0, 0, 0, 0, 0, 0, 0, 0, 0, 1, 0, 0<br/>0, 0, 0, 0, 0, 0, 0, 0, 0, 0, 0, 0, 1, 0<br/>0, 0, 1, 0, 0, 0, 0, 0, 0]<br/>class = y<SUB>11</SUB>>, fillcolor="#ffffff"] ;
97 -> 98 ;
99 [label=<gini = 0.5<br/>samples = 2<br/>value = [0, 0, 0, 0, 0, 0, 0, 0, 0, 0, 0, 0, 0, 0<br/>0, 0, 0, 0, 0, 0, 0, 0, 0, 0, 0, 0, 1, 0<br/>0, 0, 1, 0, 0, 0, 0, 0, 0]<br/>class = y<SUB>26</SUB>>, fillcolor="#ffffff"] ;
98 -> 99 ;
100 [label=<gini = 0.0<br/>samples = 1<br/>value = [0, 0, 0, 0, 0, 0, 0, 0, 0, 0, 0, 1, 0, 0<br/>0, 0, 0, 0, 0, 0, 0, 0, 0, 0, 0, 0, 0, 0<br/>0, 0, 0, 0, 0, 0, 0, 0, 0]<br/>class = y<SUB>11</SUB>>, fillcolor="#39e55b"] ;
98 -> 100 ;
101 [label=<gini = 0.0<br/>samples = 2<br/>value = [0, 0, 0, 0, 0, 0, 0, 0, 2, 0, 0, 0, 0, 0<br/>0, 0, 0, 0, 0, 0, 0, 0, 0, 0, 0, 0, 0, 0<br/>0, 0, 0, 0, 0, 0, 0, 0, 0]<br/>class = y<SUB>8</SUB>>, fillcolor="#6de539"] ;
97 -> 101 ;
102 [label=<Minimum Distance to Road &le; 7.5<br/>gini = 0.5<br/>samples = 2<br/>value = [0, 0, 0, 0, 0, 0, 0, 0, 0, 0, 0, 0, 0, 1<br/>0, 0, 0, 0, 0, 0, 0, 1, 0, 0, 0, 0, 0, 0<br/>0, 0, 0, 0, 0, 0, 0, 0, 0]<br/>class = y<SUB>13</SUB>>, fillcolor="#ffffff"] ;
92 -> 102 ;
103 [label=<gini = 0.0<br/>samples = 1<br/>value = [0, 0, 0, 0, 0, 0, 0, 0, 0, 0, 0, 0, 0, 1<br/>0, 0, 0, 0, 0, 0, 0, 0, 0, 0, 0, 0, 0, 0<br/>0, 0, 0, 0, 0, 0, 0, 0, 0]<br/>class = y<SUB>13</SUB>>, fillcolor="#39e592"] ;
102 -> 103 ;
104 [label=<gini = 0.0<br/>samples = 1<br/>value = [0, 0, 0, 0, 0, 0, 0, 0, 0, 0, 0, 0, 0, 0<br/>0, 0, 0, 0, 0, 0, 0, 1, 0, 0, 0, 0, 0, 0<br/>0, 0, 0, 0, 0, 0, 0, 0, 0]<br/>class = y<SUB>21</SUB>>, fillcolor="#3958e5"] ;
102 -> 104 ;
105 [label=<The Third Most Dominant Land Type &le; 4.0<br/>gini = 0.778<br/>samples = 6<br/>value = [1, 0, 0, 0, 0, 0, 0, 0, 1, 0, 0, 0, 0, 2<br/>0, 0, 0, 0, 0, 0, 0, 0, 0, 0, 0, 1, 0, 0<br/>0, 0, 0, 0, 0, 0, 1, 0, 0]<br/>class = y<SUB>13</SUB>>, fillcolor="#d7fae9"] ;
91 -> 105 ;
106 [label=<The Third Most Dominant Land Type &le; 1.5<br/>gini = 0.75<br/>samples = 4<br/>value = [1, 0, 0, 0, 0, 0, 0, 0, 1, 0, 0, 0, 0, 0<br/>0, 0, 0, 0, 0, 0, 0, 0, 0, 0, 0, 1, 0, 0<br/>0, 0, 0, 0, 0, 0, 1, 0, 0]<br/>class = y<SUB>0</SUB>>, fillcolor="#ffffff"] ;
105 -> 106 ;
107 [label=<gini = 0.0<br/>samples = 1<br/>value = [1, 0, 0, 0, 0, 0, 0, 0, 0, 0, 0, 0, 0, 0<br/>0, 0, 0, 0, 0, 0, 0, 0, 0, 0, 0, 0, 0, 0<br/>0, 0, 0, 0, 0, 0, 0, 0, 0]<br/>class = y<SUB>0</SUB>>, fillcolor="#e58139"] ;
106 -> 107 ;
108 [label=<Type of Reservoir &le; 13.5<br/>gini = 0.667<br/>samples = 3<br/>value = [0, 0, 0, 0, 0, 0, 0, 0, 1, 0, 0, 0, 0, 0<br/>0, 0, 0, 0, 0, 0, 0, 0, 0, 0, 0, 1, 0, 0<br/>0, 0, 0, 0, 0, 0, 1, 0, 0]<br/>class = y<SUB>8</SUB>>, fillcolor="#ffffff"] ;
106 -> 108 ;
109 [label=<Water Reservoir Surface &le; 400.0<br/>gini = 0.5<br/>samples = 2<br/>value = [0, 0, 0, 0, 0, 0, 0, 0, 1, 0, 0, 0, 0, 0<br/>0, 0, 0, 0, 0, 0, 0, 0, 0, 0, 0, 0, 0, 0<br/>0, 0, 0, 0, 0, 0, 1, 0, 0]<br/>class = y<SUB>8</SUB>>, fillcolor="#ffffff"] ;
108 -> 109 ;
110 [label=<gini = 0.0<br/>samples = 1<br/>value = [0, 0, 0, 0, 0, 0, 0, 0, 1, 0, 0, 0, 0, 0<br/>0, 0, 0, 0, 0, 0, 0, 0, 0, 0, 0, 0, 0, 0<br/>0, 0, 0, 0, 0, 0, 0, 0, 0]<br/>class = y<SUB>8</SUB>>, fillcolor="#6de539"] ;
109 -> 110 ;
111 [label=<gini = 0.0<br/>samples = 1<br/>value = [0, 0, 0, 0, 0, 0, 0, 0, 0, 0, 0, 0, 0, 0<br/>0, 0, 0, 0, 0, 0, 0, 0, 0, 0, 0, 0, 0, 0<br/>0, 0, 0, 0, 0, 0, 1, 0, 0]<br/>class = y<SUB>34</SUB>>, fillcolor="#e53947"] ;
109 -> 111 ;
112 [label=<gini = 0.0<br/>samples = 1<br/>value = [0, 0, 0, 0, 0, 0, 0, 0, 0, 0, 0, 0, 0, 0<br/>0, 0, 0, 0, 0, 0, 0, 0, 0, 0, 0, 1, 0, 0<br/>0, 0, 0, 0, 0, 0, 0, 0, 0]<br/>class = y<SUB>25</SUB>>, fillcolor="#8939e5"] ;
108 -> 112 ;
113 [label=<gini = 0.0<br/>samples = 2<br/>value = [0, 0, 0, 0, 0, 0, 0, 0, 0, 0, 0, 0, 0, 2<br/>0, 0, 0, 0, 0, 0, 0, 0, 0, 0, 0, 0, 0, 0<br/>0, 0, 0, 0, 0, 0, 0, 0, 0]<br/>class = y<SUB>13</SUB>>, fillcolor="#39e592"] ;
105 -> 113 ;
114 [label=<gini = 0.0<br/>samples = 1<br/>value = [0, 0, 0, 0, 0, 0, 0, 0, 0, 0, 0, 0, 0, 0<br/>0, 0, 0, 0, 0, 0, 0, 0, 0, 0, 0, 0, 0, 0<br/>0, 0, 0, 0, 0, 1, 0, 0, 0]<br/>class = y<SUB>33</SUB>>, fillcolor="#e53961"] ;
90 -> 114 ;
}