digraph Tree {
node [shape=box, style="filled, rounded", color="black", fontname=helvetica] ;
edge [fontname=helvetica] ;
0 [label=<Water Reservoir Surface &le; 325.0<br/>gini = 0.383<br/>samples = 124<br/>value = [92, 32]<br/>class = Not Common newt>, fillcolor="#eead7e"] ;
1 [label=<Presence of Fishing &le; 3.5<br/>gini = 0.172<br/>samples = 42<br/>value = [38, 4]<br/>class = Not Common newt>, fillcolor="#e88e4e"] ;
0 -> 1 [labeldistance=2.5, labelangle=45, headlabel="True"] ;
2 [label=<Minimum Distance to Road &le; 3.5<br/>gini = 0.139<br/>samples = 40<br/>value = [37, 3]<br/>class = Not Common newt>, fillcolor="#e78b49"] ;
1 -> 2 ;
3 [label=<gini = 0.0<br/>samples = 25<br/>value = [25, 0]<br/>class = Not Common newt>, fillcolor="#e58139"] ;
2 -> 3 ;
4 [label=<Maintenance Status of Reservoir &le; 1.0<br/>gini = 0.32<br/>samples = 15<br/>value = [12, 3]<br/>class = Not Common newt>, fillcolor="#eca06a"] ;
2 -> 4 ;
5 [label=<gini = 0.245<br/>samples = 14<br/>value = [12, 2]<br/>class = Not Common newt>, fillcolor="#e9965a"] ;
4 -> 5 ;
6 [label=<gini = 0.0<br/>samples = 1<br/>value = [0, 1]<br/>class = Common newt>, fillcolor="#399de5"] ;
4 -> 6 ;
7 [label=<Minimum Distance to Road &le; 0.5<br/>gini = 0.5<br/>samples = 2<br/>value = [1, 1]<br/>class = Not Common newt>, fillcolor="#ffffff"] ;
1 -> 7 ;
8 [label=<gini = 0.0<br/>samples = 1<br/>value = [1, 0]<br/>class = Not Common newt>, fillcolor="#e58139"] ;
7 -> 8 ;
9 [label=<gini = 0.0<br/>samples = 1<br/>value = [0, 1]<br/>class = Common newt>, fillcolor="#399de5"] ;
7 -> 9 ;
10 [label=<Water Reservoir Surface &le; 3650.0<br/>gini = 0.45<br/>samples = 82<br/>value = [54, 28]<br/>class = Not Common newt>, fillcolor="#f2c2a0"] ;
0 -> 10 [labeldistance=2.5, labelangle=-45, headlabel="False"] ;
11 [label=<The Third Most Dominant Land Type &le; 8.0<br/>gini = 0.492<br/>samples = 55<br/>value = [31, 24]<br/>class = Not Common newt>, fillcolor="#f9e3d2"] ;
10 -> 11 ;
12 [label=<Presence of Vegetation &le; 0.5<br/>gini = 0.493<br/>samples = 34<br/>value = [15, 19]<br/>class = Common newt>, fillcolor="#d5eafa"] ;
11 -> 12 ;
13 [label=<gini = 0.245<br/>samples = 7<br/>value = [6, 1]<br/>class = Not Common newt>, fillcolor="#e9965a"] ;
12 -> 13 ;
14 [label=<gini = 0.444<br/>samples = 27<br/>value = [9, 18]<br/>class = Common newt>, fillcolor="#9ccef2"] ;
12 -> 14 ;
15 [label=<Presence of Fishing &le; 0.5<br/>gini = 0.363<br/>samples = 21<br/>value = [16, 5]<br/>class = Not Common newt>, fillcolor="#eda877"] ;
11 -> 15 ;
16 [label=<gini = 0.0<br/>samples = 10<br/>value = [10, 0]<br/>class = Not Common newt>, fillcolor="#e58139"] ;
15 -> 16 ;
17 [label=<gini = 0.496<br/>samples = 11<br/>value = [6, 5]<br/>class = Not Common newt>, fillcolor="#fbeade"] ;
15 -> 17 ;
18 [label=<Presence of Fishing &le; 2.5<br/>gini = 0.252<br/>samples = 27<br/>value = [23, 4]<br/>class = Not Common newt>, fillcolor="#ea975b"] ;
10 -> 18 ;
19 [label=<Water Reservoir Surface &le; 13000.0<br/>gini = 0.346<br/>samples = 18<br/>value = [14, 4]<br/>class = Not Common newt>, fillcolor="#eca572"] ;
18 -> 19 ;
20 [label=<gini = 0.153<br/>samples = 12<br/>value = [11, 1]<br/>class = Not Common newt>, fillcolor="#e78c4b"] ;
19 -> 20 ;
21 [label=<gini = 0.5<br/>samples = 6<br/>value = [3, 3]<br/>class = Not Common newt>, fillcolor="#ffffff"] ;
19 -> 21 ;
22 [label=<gini = 0.0<br/>samples = 9<br/>value = [9, 0]<br/>class = Not Common newt>, fillcolor="#e58139"] ;
18 -> 22 ;
}