digraph Tree {
node [shape=box, style="filled, rounded", color="black", fontname=helvetica] ;
edge [fontname=helvetica] ;
0 [label=<Water Reservoir Surface &le; 13000.0<br/>gini = 0.391<br/>samples = 124<br/>value = [91, 33]<br/>class = Not Fire-bellied toad>, fillcolor="#eeaf81"] ;
1 [label=<Type of Reservoir &le; 1.5<br/>gini = 0.347<br/>samples = 112<br/>value = [87, 25]<br/>class = Not Fire-bellied toad>, fillcolor="#eca572"] ;
0 -> 1 [labeldistance=2.5, labelangle=45, headlabel="True"] ;
2 [label=<The Third Most Dominant Land Type &le; 1.5<br/>gini = 0.414<br/>samples = 65<br/>value = [46, 19]<br/>class = Not Fire-bellied toad>, fillcolor="#f0b58b"] ;
1 -> 2 ;
3 [label=<Water Reservoir Surface &le; 250.0<br/>gini = 0.278<br/>samples = 6<br/>value = [1, 5]<br/>class = Fire-bellied toad>, fillcolor="#61b1ea"] ;
2 -> 3 ;
4 [label=<gini = 0.0<br/>samples = 1<br/>value = [1, 0]<br/>class = Not Fire-bellied toad>, fillcolor="#e58139"] ;
3 -> 4 ;
5 [label=<gini = 0.0<br/>samples = 5<br/>value = [0, 5]<br/>class = Fire-bellied toad>, fillcolor="#399de5"] ;
3 -> 5 ;
6 [label=<Water Reservoir Surface &le; 1650.0<br/>gini = 0.362<br/>samples = 59<br/>value = [45, 14]<br/>class = Not Fire-bellied toad>, fillcolor="#eda877"] ;
2 -> 6 ;
7 [label=<gini = 0.463<br/>samples = 33<br/>value = [21, 12]<br/>class = Not Fire-bellied toad>, fillcolor="#f4c9aa"] ;
6 -> 7 ;
8 [label=<gini = 0.142<br/>samples = 26<br/>value = [24, 2]<br/>class = Not Fire-bellied toad>, fillcolor="#e78c49"] ;
6 -> 8 ;
9 [label=<The Most Dominant Land Type &le; 12.0<br/>gini = 0.223<br/>samples = 47<br/>value = [41, 6]<br/>class = Not Fire-bellied toad>, fillcolor="#e99356"] ;
1 -> 9 ;
10 [label=<Water Reservoir Surface &le; 450.0<br/>gini = 0.194<br/>samples = 46<br/>value = [41, 5]<br/>class = Not Fire-bellied toad>, fillcolor="#e89051"] ;
9 -> 10 ;
11 [label=<gini = 0.114<br/>samples = 33<br/>value = [31, 2]<br/>class = Not Fire-bellied toad>, fillcolor="#e78946"] ;
10 -> 11 ;
12 [label=<gini = 0.355<br/>samples = 13<br/>value = [10, 3]<br/>class = Not Fire-bellied toad>, fillcolor="#eda774"] ;
10 -> 12 ;
13 [label=<gini = 0.0<br/>samples = 1<br/>value = [0, 1]<br/>class = Fire-bellied toad>, fillcolor="#399de5"] ;
9 -> 13 ;
14 [label=<Water Reservoir Surface &le; 29150.0<br/>gini = 0.444<br/>samples = 12<br/>value = [4, 8]<br/>class = Fire-bellied toad>, fillcolor="#9ccef2"] ;
0 -> 14 [labeldistance=2.5, labelangle=-45, headlabel="False"] ;
15 [label=<gini = 0.0<br/>samples = 4<br/>value = [0, 4]<br/>class = Fire-bellied toad>, fillcolor="#399de5"] ;
14 -> 15 ;
16 [label=<Number of Reservoir &le; 4.5<br/>gini = 0.5<br/>samples = 8<br/>value = [4, 4]<br/>class = Not Fire-bellied toad>, fillcolor="#ffffff"] ;
14 -> 16 ;
17 [label=<The Third Most Dominant Land Type &le; 4.0<br/>gini = 0.444<br/>samples = 6<br/>value = [2, 4]<br/>class = Fire-bellied toad>, fillcolor="#9ccef2"] ;
16 -> 17 ;
18 [label=<gini = 0.444<br/>samples = 3<br/>value = [2, 1]<br/>class = Not Fire-bellied toad>, fillcolor="#f2c09c"] ;
17 -> 18 ;
19 [label=<gini = 0.0<br/>samples = 3<br/>value = [0, 3]<br/>class = Fire-bellied toad>, fillcolor="#399de5"] ;
17 -> 19 ;
20 [label=<gini = 0.0<br/>samples = 2<br/>value = [2, 0]<br/>class = Not Fire-bellied toad>, fillcolor="#e58139"] ;
16 -> 20 ;
}